{
  "scaler_mean": [
    5.542403703703704,
    95.18408024691358,
    3121.591572839506,
    0.39885802469135806
  ],
  "scaler_scale": [
    1.3745979971213353,
    29.185414799686047,
    3066.0585970750826,
    0.39346897970635486
  ],
  "layer_0_weights": [
    [
      -0.22744726824849296,
      0.5595472453904174,
      0.18159932822156424,
      0.2176758991471944,
      -0.3532431927676134,
      -0.43921736878023215,
      -0.43117661241069805,
      0.4961676203604448,
      0.002842328174128705,
      0.17706822022031848,
      -0.46185476854364665,
      0.46071376140986564,
      0.29451194893694105,
      -0.3000095000326326,
      -0.3314223419384276,
      -0.3764284574959536
    ],
    [
      -0.23388692269512967,
      0.0952819190955792,
      -0.14708036535183913,
      -0.28219799863752026,
      0.14715718311950884,
      -0.3837450664082858,
      -0.15302006311735905,
      -0.05127422033991224,
      0.0604819634641229,
      0.24977216189698354,
      -0.38107600615193227,
      -0.02869673391453707,
      0.0683855401839124,
      -0.5466333828649805,
      0.13496991616509307,
      -0.436495713635979
    ],
    [
      -0.5774157211191934,
      0.5625914368576076,
      0.4375352282932229,
      0.2682109626146142,
      -0.189036765108001,
      -0.4948263636730183,
      0.27316042569469684,
      0.029549681552821082,
      -0.5216956658078595,
      -0.06428210969954934,
      -0.47386327874096085,
      0.4506895800660033,
      -0.23083278007868843,
      0.18512978752245413,
      -0.18976585218552305,
      -0.015754448797548764
    ],
    [
      -0.015526076174636048,
      -0.3712440101193033,
      0.44186469113670485,
      0.22222326227738318,
      0.4490711029277006,
      0.34724999281715196,
      0.011258946125567661,
      0.5572051541682976,
      -0.5580858618859216,
      -0.27558660308128435,
      -0.4401103967331966,
      -0.11363768629068405,
      -0.062488734402314845,
      -0.22012687960561922,
      0.3394874758827239,
      -0.1497415953040596
    ]
  ],
  "layer_0_bias": [
    -0.1345027647540429,
    0.11451972619608566,
    -0.46588056101624803,
    0.40234997918178494,
    -0.4916086651354979,
    0.5966337695982005,
    0.2514964823815103,
    -0.23493365475603087,
    -0.4340711571298485,
    0.27994551838839865,
    0.19933294627881226,
    0.20656554430771812,
    0.25343977680064594,
    -0.4790209939560673,
    -0.17084156545476592,
    -0.3830327991161593
  ],
  "layer_1_weights": [
    [
      0.44252165076238054,
      0.1596043208687815,
      -0.2433152663107403,
      -0.2933450979901945,
      -0.07448694659110147,
      -0.19308323605456515,
      0.19063410125396058,
      0.1273512810673303
    ],
    [
      0.24717225336525656,
      -0.00018388034903647638,
      -0.4459631287743911,
      0.14450460553094963,
      0.19199185990168663,
      0.004117773001030608,
      0.188979777181448,
      6.045485761033207e-06
    ],
    [
      6.253651450817428e-05,
      -0.007011970273751271,
      -0.32952313508483233,
      -0.35664510550840745,
      -0.3238023424735616,
      0.037574280340487556,
      -0.10526401136353522,
      -9.110743375651987e-06
    ],
    [
      0.501769358904151,
      -0.1697176590491379,
      -0.1574246112586388,
      0.18537254055711538,
      -0.3423923004829152,
      -0.2806915824904702,
      -0.12023218160235082,
      -0.350238190496446
    ],
    [
      0.47105303666488896,
      0.25482678808086123,
      0.03571176220186144,
      0.2325540508112263,
      0.17083872344441436,
      -0.1795785972681262,
      0.34997811690936004,
      0.02510329627301722
    ],
    [
      0.3900616403161072,
      0.4532849344213389,
      -0.24377480478413768,
      -0.2497192186138088,
      -0.1429635008555545,
      -0.09091925560469093,
      0.2682360155366196,
      0.3477699130740959
    ],
    [
      -0.41966592894933713,
      0.04341246171206603,
      -0.13885053218870044,
      -0.2460530463910142,
      -0.24059306551333595,
      -0.1803943567100339,
      0.4138299774258055,
      -0.1931619350027695
    ],
    [
      1.3917899823426412e-05,
      0.08536468885085124,
      -0.03754927940504154,
      0.39517175377333413,
      0.31798076666645425,
      -0.12246670058640408,
      0.11177884583175982,
      -0.08230229200627623
    ],
    [
      -0.09505987812269506,
      -0.4693150402767706,
      0.04086993799615086,
      -1.7584916936587145e-06,
      -0.304769967327908,
      -0.23960276982233863,
      0.5399924556154382,
      -0.1329049380177971
    ],
    [
      -0.16604958322867333,
      -0.03134360915270747,
      0.4266276262838099,
      -0.22620211973292575,
      0.11093064856038637,
      0.2435626287572044,
      -0.25999272501183307,
      0.10572367314181398
    ],
    [
      -0.05279895215933121,
      0.17641161208608772,
      0.07494649603138208,
      0.0005661893553040064,
      -0.26818919672563624,
      0.3172712545115942,
      -0.19142743698543813,
      -0.32741081802039645
    ],
    [
      -0.31492024010760633,
      0.013565719345018368,
      0.11783567254662142,
      -0.44725309514933953,
      -0.04993760905090785,
      -0.14421673076878733,
      0.2149717154410293,
      -0.19058548487854193
    ],
    [
      0.32508180261975217,
      0.04668024305159126,
      0.3786927388965774,
      -0.32864692001015694,
      -0.21977218162636744,
      -0.4045684751205791,
      0.36691039560171995,
      0.3908654817008665
    ],
    [
      -0.19432868616295426,
      0.07823957186015927,
      0.28383577615146355,
      0.002898417088013114,
      0.0002498936032891502,
      -0.2766192053650365,
      -0.447125339485274,
      0.3847620245513395
    ],
    [
      0.46100672550898847,
      0.12085860698636602,
      -0.05389699327908812,
      -0.04690791246506711,
      0.1038611404890344,
      0.25639945603594044,
      0.3358437359200381,
      0.26607708074428904
    ],
    [
      0.19606524000640252,
      -0.4983995889951955,
      -0.41305887288091153,
      0.2577481473935721,
      0.02064606550113472,
      -0.5092603188470317,
      -0.40979523118825767,
      0.15295237989885585
    ]
  ],
  "layer_1_bias": [
    -0.402657005204388,
    -0.2420457052772976,
    -0.012697540999276252,
    0.17216492439725595,
    0.08673107685552982,
    -0.29379053294723745,
    0.18911106703045588,
    -0.2764872457744101
  ],
  "layer_2_weights": [
    [
      -0.27121567036995886,
      0.22588788771167778,
      0.08438035942080122,
      0.587783630747133,
      0.34070929282747564
    ],
    [
      0.04949176208521214,
      -0.6299438665696693,
      -0.2579283788289637,
      -0.2328651517234384,
      -0.27274805530095453
    ],
    [
      0.5958318283255529,
      -0.20233339598267067,
      0.48729597469407465,
      0.2346204885692483,
      0.36228111693801995
    ],
    [
      -0.011027564337582414,
      0.05268771540824876,
      -0.01608800692613035,
      -0.3460024242351723,
      0.25538401579291026
    ],
    [
      -0.36557823754552843,
      -0.8053444701369442,
      0.11127865887422064,
      -0.32457848099432585,
      0.538685890949612
    ],
    [
      0.6019691353637304,
      0.5489987602641744,
      -0.1911570280860994,
      -0.6434601460566096,
      0.5678242605587647
    ],
    [
      -0.19599226794167837,
      0.5059706464854102,
      0.5262458085532892,
      0.6104039070379281,
      -0.18463512346147587
    ],
    [
      -0.10404437760109164,
      0.5041977150573607,
      -0.21356041829419303,
      -0.4591651485919041,
      0.07149562362839025
    ]
  ],
  "layer_2_bias": [
    0.49050084943304545,
    0.13110026200919214,
    -0.01524248279200141,
    -0.41962542397975566,
    0.27412675155710736
  ]
}